FANN_FLO_2.1
num_layers=3
learning_rate=0.700000
connection_rate=1.000000
network_type=0
learning_momentum=0.000000
training_algorithm=2
train_error_function=1
train_stop_function=0
cascade_output_change_fraction=0.010000
quickprop_decay=-0.000100
quickprop_mu=1.750000
rprop_increase_factor=1.200000
rprop_decrease_factor=0.500000
rprop_delta_min=0.000000
rprop_delta_max=50.000000
rprop_delta_zero=0.100000
cascade_output_stagnation_epochs=12
cascade_candidate_change_fraction=0.010000
cascade_candidate_stagnation_epochs=12
cascade_max_out_epochs=150
cascade_min_out_epochs=50
cascade_max_cand_epochs=150
cascade_min_cand_epochs=50
cascade_num_candidate_groups=2
bit_fail_limit=3.49999999999999977796e-01
cascade_candidate_limit=1.00000000000000000000e+03
cascade_weight_multiplier=4.00000000000000022204e-01
cascade_activation_functions_count=10
cascade_activation_functions=3 5 7 8 10 11 14 15 16 17 
cascade_activation_steepnesses_count=4
cascade_activation_steepnesses=2.50000000000000000000e-01 5.00000000000000000000e-01 7.50000000000000000000e-01 1.00000000000000000000e+00 
layer_sizes=3 4 5 
scale_included=0
neurons (num_inputs, activation_function, activation_steepness)=(0, 0, 0.00000000000000000000e+00) (0, 0, 0.00000000000000000000e+00) (0, 0, 0.00000000000000000000e+00) (3, 4, 5.00000000000000000000e-01) (3, 4, 5.00000000000000000000e-01) (3, 4, 5.00000000000000000000e-01) (0, 0, 0.00000000000000000000e+00) (4, 4, 5.00000000000000000000e-01) (4, 4, 5.00000000000000000000e-01) (4, 4, 5.00000000000000000000e-01) (4, 4, 5.00000000000000000000e-01) (0, 0, 0.00000000000000000000e+00) 
connections (connected_to_neuron, weight)=(0, -1.98111236095428466797e-02) (1, -7.40419104695320129395e-02) (2, -7.82382413744926452637e-02) (0, 9.97849032282829284668e-02) (1, -5.63486181199550628662e-02) (2, 2.58648395538330078125e-03) (0, 6.78224489092826843262e-02) (1, 2.25279703736305236816e-02) (2, -4.07936759293079376221e-02) (3, 2.75104567408561706543e-02) (4, 4.85743582248687744141e-03) (5, -1.28339976072311401367e-03) (6, 9.45550128817558288574e-02) (3, -4.14966419339179992676e-02) (4, 5.42715415358543395996e-02) (5, 5.34899532794952392578e-03) (6, 5.39827719330787658691e-02) (3, -1.99542790651321411133e-02) (4, 7.83058926463127136230e-02) (5, -4.33370545506477355957e-02) (6, -2.95083299279212951660e-02) (3, 6.15449026226997375488e-02) (4, 8.38053002953529357910e-02) (5, -8.60489457845687866211e-02) (6, 8.98654088377952575684e-02) 
